SVM-light Version V6.20
0 # kernel type
3 # kernel parameter -d 
1 # kernel parameter -g 
1 # kernel parameter -s 
1 # kernel parameter -r 
empty# kernel parameter -u 
16 # highest feature index 
5 # number of training documents 
2 # number of support vectors plus 1 
0 # threshold b, each following line is a SV (starting with alpha*y)
1 5:0.41409898 6:0.16995952 8:0.40142405 9:0.14650568 11:0.41372359 12:0.29322976 14:0.13080628 15:-0.012478975 #
