SVM-light Version V6.20
0 # kernel type
3 # kernel parameter -d 
1 # kernel parameter -g 
1 # kernel parameter -s 
1 # kernel parameter -r 
empty# kernel parameter -u 
11 # highest feature index 
5 # number of training documents 
2 # number of support vectors plus 1 
0 # threshold b, each following line is a SV (starting with alpha*y)
1 1:0.41122535 2:-0.20723793 3:0.73812002 4:-0.037355799 5:0.28426278 6:0.073647685 7:0.19798666 8:0.2757391 9:0.080269866 10:0.35840333 #
